svm_type c_svc
kernel_type rbf
gamma 0.00990099
nr_class 2
total_sv 11
rho -0.860707
label -1 1
nr_sv 6 5
SV
1 5:1 7:1 14:1 19:1 39:1 40:1 51:1 63:1 67:1 73:1 74:1 76:1 78:1 83:1 
0.9017930892862775 3:1 6:1 17:1 22:1 36:1 41:1 53:1 64:1 67:1 73:1 74:1 76:1 80:1 83:1 
0.9125011856243489 5:1 6:1 17:1 21:1 35:1 40:1 53:1 63:1 71:1 73:1 74:1 76:1 80:1 83:1 
0.8619189628469389 2:1 6:1 18:1 19:1 39:1 40:1 52:1 61:1 71:1 72:1 74:1 76:1 80:1 95:1 
0.9759424306931396 3:1 6:1 18:1 29:1 39:1 40:1 51:1 61:1 67:1 72:1 74:1 76:1 80:1 83:1 
0.3478443315492952 4:1 6:1 16:1 26:1 35:1 45:1 49:1 64:1 71:1 72:1 74:1 76:1 78:1 101:1 
-1 5:1 7:1 17:1 22:1 36:1 40:1 51:1 63:1 67:1 73:1 74:1 76:1 81:1 83:1 
-1 2:1 6:1 14:1 29:1 39:1 42:1 52:1 64:1 67:1 72:1 75:1 76:1 82:1 83:1 
-1 4:1 6:1 16:1 19:1 39:1 40:1 51:1 63:1 67:1 73:1 75:1 76:1 80:1 83:1 
-1 3:1 6:1 18:1 20:1 37:1 40:1 51:1 63:1 71:1 73:1 74:1 76:1 82:1 83:1 
-1 2:1 11:1 15:1 19:1 39:1 40:1 52:1 63:1 68:1 73:1 74:1 76:1 80:1 90:1 
